digraph Tree {
node [shape=box, style="filled, rounded", color="black", fontname="helvetica"] ;
edge [fontname="helvetica"] ;
0 [label=<NH4N &le; 0.008<br/>squared_error = 0.394<br/>samples = 69<br/>value = 0.772>, fillcolor="#f8deca"] ;
1 [label=<squared_error = 0.0<br/>samples = 1<br/>value = 2.862>, fillcolor="#e58139"] ;
0 -> 1 [labeldistance=2.5, labelangle=45, headlabel="True"] ;
2 [label=<NO3N &le; 0.067<br/>squared_error = 0.236<br/>samples = 68<br/>value = 0.692>, fillcolor="#f9e1d0"] ;
0 -> 2 [labeldistance=2.5, labelangle=-45, headlabel="False"] ;
3 [label=<PSU &le; 2.609<br/>squared_error = 0.161<br/>samples = 63<br/>value = 0.61>, fillcolor="#fae5d6"] ;
2 -> 3 ;
4 [label=<DOP &le; 30.5<br/>squared_error = 0.049<br/>samples = 14<br/>value = 0.235>, fillcolor="#fdf5f0"] ;
3 -> 4 ;
5 [label=<PN &le; 0.968<br/>squared_error = 0.008<br/>samples = 13<br/>value = 0.158>, fillcolor="#fef9f5"] ;
4 -> 5 ;
6 [label="(...)", fillcolor="#C0C0C0"] ;
5 -> 6 ;
29 [label="(...)", fillcolor="#C0C0C0"] ;
5 -> 29 ;
30 [label=<squared_error = -0.0<br/>samples = 1<br/>value = 0.773>, fillcolor="#f8ddca"] ;
4 -> 30 ;
31 [label=<TN/TP &le; 6.53<br/>squared_error = 0.136<br/>samples = 49<br/>value = 0.733>, fillcolor="#f8dfcd"] ;
3 -> 31 ;
32 [label=<PicoplanktonBiomassC &le; 0.76<br/>squared_error = 0.042<br/>samples = 9<br/>value = 0.31>, fillcolor="#fcf2eb"] ;
31 -> 32 ;
33 [label="(...)", fillcolor="#C0C0C0"] ;
32 -> 33 ;
44 [label="(...)", fillcolor="#C0C0C0"] ;
32 -> 44 ;
49 [label=<DON &le; 0.838<br/>squared_error = 0.109<br/>samples = 40<br/>value = 0.824>, fillcolor="#f8dbc7"] ;
31 -> 49 ;
50 [label="(...)", fillcolor="#C0C0C0"] ;
49 -> 50 ;
125 [label="(...)", fillcolor="#C0C0C0"] ;
49 -> 125 ;
128 [label=<TN/TP &le; 8.331<br/>squared_error = 0.068<br/>samples = 5<br/>value = 1.693>, fillcolor="#f0b58a"] ;
2 -> 128 ;
129 [label=<PP &le; 249.3<br/>squared_error = 0.005<br/>samples = 2<br/>value = 1.266>, fillcolor="#f4c8a8"] ;
128 -> 129 ;
130 [label=<squared_error = 0.0<br/>samples = 1<br/>value = 1.197>, fillcolor="#f4cbad"] ;
129 -> 130 ;
131 [label=<squared_error = 0.0<br/>samples = 1<br/>value = 1.335>, fillcolor="#f3c5a3"] ;
129 -> 131 ;
132 [label=<PP &le; 145.1<br/>squared_error = 0.009<br/>samples = 3<br/>value = 1.835>, fillcolor="#eeae80"] ;
128 -> 132 ;
133 [label=<DON &le; 0.65<br/>squared_error = 0.0<br/>samples = 2<br/>value = 1.9>, fillcolor="#eeac7c"] ;
132 -> 133 ;
134 [label="(...)", fillcolor="#C0C0C0"] ;
133 -> 134 ;
135 [label="(...)", fillcolor="#C0C0C0"] ;
133 -> 135 ;
136 [label=<squared_error = -0.0<br/>samples = 1<br/>value = 1.703>, fillcolor="#f0b48a"] ;
132 -> 136 ;
}